digraph Tree {
node [shape=box] ;
0 [label="OpenPrice <= 3.615\ngini = 0.497\nsamples = 1183\nvalue = [547, 636]"] ;
1 [label="OpenPrice <= 1.805\ngini = 0.384\nsamples = 537\nvalue = [139, 398]"] ;
0 -> 1 [labeldistance=2.5, labelangle=45, headlabel="True"] ;
2 [label="duration_10 <= 0.5\ngini = 0.306\nsamples = 355\nvalue = [67, 288]"] ;
1 -> 2 ;
3 [label="duration_7 <= 0.5\ngini = 0.266\nsamples = 298\nvalue = [47, 251]"] ;
2 -> 3 ;
4 [label="category_Music/Movie/Game <= 0.5\ngini = 0.201\nsamples = 194\nvalue = [22, 172]"] ;
3 -> 4 ;
5 [label="gini = 0.099\nsamples = 96\nvalue = [5, 91]"] ;
4 -> 5 ;
6 [label="gini = 0.287\nsamples = 98\nvalue = [17, 81]"] ;
4 -> 6 ;
7 [label="sellerRating <= 564.0\ngini = 0.365\nsamples = 104\nvalue = [25, 79]"] ;
3 -> 7 ;
8 [label="gini = 0.252\nsamples = 54\nvalue = [8, 46]"] ;
7 -> 8 ;
9 [label="gini = 0.449\nsamples = 50\nvalue = [17, 33]"] ;
7 -> 9 ;
10 [label="gini = 0.456\nsamples = 57\nvalue = [20, 37]"] ;
2 -> 10 ;
11 [label="sellerRating <= 2365.5\ngini = 0.478\nsamples = 182\nvalue = [72, 110]"] ;
1 -> 11 ;
12 [label="sellerRating <= 1475.0\ngini = 0.407\nsamples = 123\nvalue = [35, 88]"] ;
11 -> 12 ;
13 [label="gini = 0.486\nsamples = 53\nvalue = [22, 31]"] ;
12 -> 13 ;
14 [label="gini = 0.302\nsamples = 70\nvalue = [13, 57]"] ;
12 -> 14 ;
15 [label="gini = 0.468\nsamples = 59\nvalue = [37, 22]"] ;
11 -> 15 ;
16 [label="sellerRating <= 601.5\ngini = 0.465\nsamples = 646\nvalue = [408, 238]"] ;
0 -> 16 [labeldistance=2.5, labelangle=-45, headlabel="False"] ;
17 [label="sellerRating <= 137.0\ngini = 0.464\nsamples = 150\nvalue = [55, 95]"] ;
16 -> 17 ;
18 [label="gini = 0.355\nsamples = 52\nvalue = [12, 40]"] ;
17 -> 18 ;
19 [label="gini = 0.493\nsamples = 98\nvalue = [43, 55]"] ;
17 -> 19 ;
20 [label="category_Automotive <= 0.5\ngini = 0.41\nsamples = 496\nvalue = [353, 143]"] ;
16 -> 20 ;
21 [label="endDate_Mon <= 0.5\ngini = 0.428\nsamples = 431\nvalue = [297, 134]"] ;
20 -> 21 ;
22 [label="category_Music/Movie/Game <= 0.5\ngini = 0.399\nsamples = 323\nvalue = [234, 89]"] ;
21 -> 22 ;
23 [label="endDate_Fri <= 0.5\ngini = 0.377\nsamples = 262\nvalue = [196, 66]"] ;
22 -> 23 ;
24 [label="OpenPrice <= 9.81\ngini = 0.406\nsamples = 205\nvalue = [147, 58]"] ;
23 -> 24 ;
25 [label="OpenPrice <= 5.87\ngini = 0.332\nsamples = 100\nvalue = [79, 21]"] ;
24 -> 25 ;
26 [label="gini = 0.343\nsamples = 50\nvalue = [39, 11]"] ;
25 -> 26 ;
27 [label="gini = 0.32\nsamples = 50\nvalue = [40, 10]"] ;
25 -> 27 ;
28 [label="OpenPrice <= 12.115\ngini = 0.456\nsamples = 105\nvalue = [68, 37]"] ;
24 -> 28 ;
29 [label="gini = 0.496\nsamples = 53\nvalue = [29, 24]"] ;
28 -> 29 ;
30 [label="gini = 0.375\nsamples = 52\nvalue = [39, 13]"] ;
28 -> 30 ;
31 [label="gini = 0.241\nsamples = 57\nvalue = [49, 8]"] ;
23 -> 31 ;
32 [label="gini = 0.47\nsamples = 61\nvalue = [38, 23]"] ;
22 -> 32 ;
33 [label="OpenPrice <= 9.895\ngini = 0.486\nsamples = 108\nvalue = [63, 45]"] ;
21 -> 33 ;
34 [label="gini = 0.436\nsamples = 53\nvalue = [36, 17]"] ;
33 -> 34 ;
35 [label="gini = 0.5\nsamples = 55\nvalue = [27, 28]"] ;
33 -> 35 ;
36 [label="gini = 0.239\nsamples = 65\nvalue = [56, 9]"] ;
20 -> 36 ;
}